\data\
ngram 1=12
ngram 2=47
 
\1-grams:
4.605170185988091	<unk>	0
7.061905958809396	<s>	1.5584453247094685
3.001462948262976	шкаф	1.4733454206952055
3.1498829533812494	закрыть	20.15309453507147
1.2329603411991883	выключить	17.96091029098666
1.7586010507503196	лампу	18.858013590908552
3.373026504695459	мыть	20.6251803810521
2.3705580765802514	пол	4.921325173121948
2.085172216388821	кран	0.9646272784354256
4.0661736852554045	открыть	20.53210533148525
1.8148818866489091	включить	18.86353338413215
7.061905958809396	</s>	-0.0
 
\2-grams:
0.2231435513142097	<s> шкаф
3.654977902438255	шкаф закрыть
0.3968813644167729	шкаф выключить
1.7578579175523736	шкаф мыть
23.17427093505873	шкаф включить
3.654977902438255	шкаф открыть
1.4271163556401458	закрыть выключить
0.916290731874155	закрыть пол
1.0216512475319814	закрыть шкаф
1.5662657405688916	выключить лампу
1.128465251817791	выключить выключить
2.833213344056216	выключить шкаф
1.580450375560848	выключить включить
3.5263605246161616	выключить пол
2.4277482359480516	выключить закрыть
2.461649787623733	выключить кран
1.9360090780726016	лампу мыть
0.9858167945227653	лампу выключить
1.9360090780726016	лампу кран
3.00071981506503	лампу лампу
1.7197859696029658	лампу включить
2.905409635260705	лампу закрыть
2.905409635260705	лампу открыть
-0.0	мыть пол
1.3591433720539396	пол кран
3.305053521109253	пол открыть
2.388762789235098	пол пол
2.6119063405493077	пол шкаф
0.6309048716827244	пол выключить
4.914491433543353	пол лампу
2.779509165084355	кран пол
1.3932148039644645	кран выключить
1.0849134443099477	кран включить
3.8781214537524646	кран открыть
1.6094379124341003	кран кран
2.779509165084355	кран лампу
5.199877293734784	кран шкаф
3.030823593365261	кран закрыть
5.199877293734784	кран мыть
5.199877293734784	кран </s>
0.6931471805599453	открыть шкаф
0.6931471805599453	открыть кран
2.2512917986064953	включить кран
0.5465437063680699	включить лампу
2.9444389791664407	включить выключить
2.2512917986064953	включить пол
1.845826690498331	включить включить
 
\end\
