\data\
ngram 1=12
ngram 2=48
ngram 3=112
 
\1-grams:
4.605170185988091	<unk>	0
6.369624204525879	<s>	1.045861002405735
3.0023283745394047	шкаф	1.4743960708815964
3.1507483796576783	закрыть	20.15375916708274
1.233825767475617	выключить	17.973663487283098
1.7594664770267485	лампу	18.862723558200457
3.373891930971888	мыть	20.625269526770378
2.3714235028566804	пол	4.413067838639511
2.0860376426652496	кран	0.5296609606723641
4.067039111531833	открыть	20.532287541313988
1.815747312925338	включить	18.868212746112196
7.062771385085824	</s>	-0.0
 
\2-grams:
1.0986122886681098	<s> <s>	0.48183808689273855
1.0986122886681098	<s> шкаф	0.8611008226068787
3.654977902438255	шкаф закрыть	-0.27443684470176033
0.3968813644167729	шкаф выключить	19.761854669791788
1.7578579175523736	шкаф мыть	-0.0
23.17427093505873	шкаф включить	-1.7206635466376585
3.654977902438255	шкаф открыть	-19.835962641945507
1.4271163556401458	закрыть выключить	1.2561186773423407
0.916290731874155	закрыть пол	2.2977679170486094
1.0216512475319814	закрыть шкаф	2.579432823280115
1.5662657405688916	выключить лампу	0.12488149248038115
1.128465251817791	выключить выключить	19.12842672393346
2.833213344056216	выключить шкаф	18.86004740373621
1.580450375560848	выключить включить	18.87743914644808
3.5263605246161616	выключить пол	20.627037804851856
2.4277482359480516	выключить закрыть	-0.0
2.461649787623733	выключить кран	2.1986345176473407
1.9360090780726016	лампу мыть	-0.0
0.9858167945227653	лампу выключить	19.499490405324295
1.9360090780726016	лампу кран	19.18051929901098
3.00071981506503	лампу лампу	20.525906402787918
1.7197859696029658	лампу включить	19.38826477021407
2.905409635260705	лампу закрыть	1.8580821121591264
2.905409635260705	лампу открыть	-18.22218632791281
-0.0	мыть пол	2.8292737460521282
1.3591433720539396	пол кран	20.00921197156715
3.305053521109253	пол открыть	-18.449668280825616
2.388762789235098	пол пол	1.4928010097083397
2.6119063405493077	пол шкаф	19.60726180556643
0.6309048716827244	пол выключить	19.499490405324295
5.096812990337308	пол лампу	0.6899437608424077
2.779509165084355	кран пол	2.2433274918180355
1.3932148039644645	кран выключить	1.177823050227443
1.0849134443099477	кран включить	18.87743914644808
3.8781214537524646	кран открыть	-20.505012270097126
1.6094379124341003	кран кран	3.1490662934746902
2.779509165084355	кран лампу	20.525906402787918
5.382198850528739	кран шкаф	0.8611008226068787
3.030823593365261	кран закрыть	20.276978734317993
5.382198850528739	кран мыть	-19.835962641945507
5.382198850528739	кран </s>	-0.0
0.6931471805599453	открыть шкаф	-0.28684138332270187
0.6931471805599453	открыть кран	0.5286638903786232
2.2512917986064953	включить кран	3.4389012192875734
0.5465437063680699	включить лампу	-0.0
2.9444389791664407	включить выключить	20.69341287379673
2.2512917986064953	включить пол	19.96374358744159
1.845826690498331	включить включить	19.858268399459806
 
\3-grams:
0.5306282510621704	<s> <s> шкаф
0.5306282510621704	<s> шкаф закрыть
20.72326583694641	шкаф закрыть выключить
1.466337068793427	шкаф выключить лампу
0.6678293725756556	шкаф выключить выключить
1.3609765531356008	шкаф выключить кран
-0.0	шкаф мыть пол
21.639556568820566	шкаф включить включить
2.1400661634962708	шкаф включить лампу
21.639556568820566	шкаф включить пол
1.2237754316221157	шкаф открыть шкаф
1.2237754316221157	шкаф открыть кран
22.515025306174465	закрыть выключить лампу
0.1823215567939546	закрыть выключить включить
3.5263605246161616	закрыть пол лампу
0.6931471805599453	закрыть пол выключить
0.7985076962177716	закрыть пол кран
0.05715841383994864	закрыть шкаф выключить
3.4210000089583352	закрыть шкаф открыть
1.318240897874875	выключить лампу мыть
0.8953840470548413	выключить лампу выключить
1.9600947840472698	выключить лампу кран
2.316769727986002	выключить лампу включить
4.793308128103486	выключить лампу закрыть
3.432331574967885	выключить лампу открыть
1.7047480922384253	выключить выключить шкаф
1.0116009116784799	выключить выключить выключить
1.2992829841302609	выключить выключить включить
1.7047480922384253	выключить выключить лампу
0.6931471805599453	выключить шкаф мыть
0.6931471805599453	выключить шкаф выключить
1.252762968495368	выключить включить кран
0.5596157879354228	выключить включить лампу
1.9459101490553135	выключить включить включить
-0.0	выключить пол пол
1.0986122886681098	выключить закрыть выключить
1.0986122886681098	выключить закрыть шкаф
1.0986122886681098	выключить закрыть пол
1.0647107369924282	выключить кран кран
1.1700712526502546	выключить кран включить
3.8979240810486444	выключить кран открыть
3.8979240810486444	выключить кран шкаф
1.4213856809311607	выключить кран закрыть
3.8979240810486444	выключить кран </s>
-0.0	лампу мыть пол
0.9852836033611064	лампу выключить выключить
0.9852836033611064	лампу выключить лампу
2.0149030205422647	лампу выключить закрыть
2.120263536200091	лампу выключить кран
1.0647107369924282	лампу кран включить
1.1700712526502546	лампу кран выключить
1.0647107369924282	лампу кран кран
-0.0	лампу лампу включить
1.2809338454620642	лампу включить выключить
0.6390799592896695	лампу включить лампу
1.6376087894007967	лампу включить пол
0.0953101798043249	лампу закрыть пол
2.928523523860541	лампу закрыть шкаф
0.45198512374305727	лампу открыть кран
1.2671258724957295	лампу открыть шкаф
0.7444404749474959	мыть пол кран
0.6931471805599453	мыть пол выключить
4.219507705176107	мыть пол открыть
1.1349799328389845	пол кран пол
1.0296194171811581	пол кран выключить
1.1349799328389845	пол кран кран
0.2876820724517809	пол открыть шкаф
1.916922612182061	пол открыть кран
0.2231435513142097	пол пол шкаф
22.33270374938051	пол пол открыть
-0.0	пол шкаф выключить
1.0647107369924282	пол выключить закрыть
1.0647107369924282	пол выключить выключить
1.7578579175523736	пол выключить кран
1.9810014688665833	пол выключить лампу
0.5306282510621704	пол лампу включить
2.72785282839839	кран пол открыть
0.11778303565638351	кран пол выключить
0.1823215567939546	кран выключить включить
2.4527495381534687	кран выключить лампу
23.613637594842576	кран выключить выключить
0.8960880245566356	кран включить лампу
1.493925025312256	кран включить пол
1.001448540214462	кран включить включить
1.62924053973028	кран открыть кран
21.128730945054574	кран открыть шкаф
1.1700712526502546	кран кран включить
1.0647107369924282	кран кран выключить
1.1700712526502546	кран кран лампу
3.8979240810486444	кран кран открыть
-0.0	кран лампу включить
0.5306282510621704	кран шкаф закрыть
-0.0	кран закрыть шкаф
0.5306282510621704	кран мыть пол
1.1718156926914045	открыть шкаф выключить
1.4722367909206153	открыть шкаф включить
2.833213344056216	открыть шкаф открыть
22.33270374938051	открыть кран включить
0.35667494393873245	открыть кран выключить
2.833213344056216	открыть кран мыть
0.05129329438755058	включить кран включить
3.5263605246161616	включить кран открыть
0.8718389693033213	включить лампу выключить
2.3978952727983707	включить лампу лампу
2.3978952727983707	включить лампу мыть
1.7560413866259759	включить лампу кран
2.3978952727983707	включить лампу закрыть
2.908720896564361	включить лампу открыть
2.503255788456197	включить лампу включить
-0.0	включить выключить пол
-0.0	включить пол выключить
-0.0	включить включить лампу
 
\end\
