\data\
ngram 1=4
ngram 2=7
ngram 3=11
 
\1-grams:
0.01139240506329114	[s]	2.293178519593612
0.5525316455696203	a	8.540540540540544e-15
0.3303797468354431	b	0.1547805642633223
0.00569620253164557	[/s]	1.0
 
\2-grams:
5e-16	[s] [s]	0.9999999999999996
5e-16	[s] a	4.409090909090906
0.7731958762886598	a a	1.0
0.2268041237113402	a b	5.272727272727298
0.6206896551724138	b b	5.800000000000026e-14
0.3620689655172414	b a	47619047619047.67
1.724137931034483e-17	b [/s]	1.0
 
\3-grams:
1e-15	[s] [s] a
1e-15	[s] a a
0.28	a a b
0.72	a a a
0.9090909090909091	a b b
4.5454545454545455e-17	a b a
4.5454545454545455e-17	a b [/s]
0.5555555555555556	b b a
0.4444444444444444	b b b
0.9523809523809523	b a a
4.7619047619047625e-17	b a b
 
\end\
